<?xml version="1.0"?>
<opencv_storage>
<my_svm type_id="opencv-ml-svm">
  <svm_type>C_SVC</svm_type>
  <kernel><type>LINEAR</type></kernel>
  <C>1.</C>
  <term_criteria><epsilon>2.2204460492503131e-16</epsilon>
    <iterations>200</iterations></term_criteria>
  <var_all>784</var_all>
  <var_count>784</var_count>
  <class_count>2</class_count>
  <class_labels type_id="opencv-matrix">
    <rows>1</rows>
    <cols>2</cols>
    <dt>i</dt>
    <data>
      -1 1</data></class_labels>
  <sv_total>1</sv_total>
  <support_vectors>
    <_>
      0. 0. 8.68511634e-05 1.16523559e-04 5.30388570e-05 4.01954312e-05
      6.16545731e-05 2.12171610e-04 1.57415925e-05 1.08004817e-04
      2.85681162e-05 2.85681162e-05 2.94988349e-05 2.84640031e-04
      2.71928038e-05 7.05710845e-05 1.64519050e-04 2.97852324e-07
      1.18457901e-04 -3.70843045e-05 1.48759091e-05 -1.12758362e-05
      -1.99341812e-05 3.84000268e-05 4.29113388e-05 1.89108741e-05
      3.93882619e-05 9.29866728e-05 0. -3.57237855e-06 1.73500412e-05
      -2.72373327e-05 1.09497487e-04 -1.30113360e-04 -9.18643855e-05
      1.17106560e-04 7.16119030e-05 -1.34831440e-04 4.59656439e-05
      4.28521744e-05 -1.30577784e-04 -4.97095934e-05 -7.59394561e-06
      -3.19374267e-05 -5.66579656e-05 1.27413834e-04 5.38018066e-05
      7.31469772e-05 0. 5.81564382e-05 -9.39860274e-06 0. 4.90140228e-05
      1.00813850e-05 2.53452890e-04 0. 0. 0. 8.26799951e-05
      1.25021634e-05 8.90998053e-05 3.33195530e-05 2.34663894e-05
      -1.36425626e-06 4.17828087e-05 3.39077706e-05 1.64789381e-04
      1.76348156e-04 9.96755552e-05 1.93996093e-05 7.62018899e-05
      -2.61435143e-05 1.74854402e-04 1.81546857e-04 1.36914197e-04
      7.80468181e-05 1.44427700e-04 3.19204519e-05 0. 1.45399361e-04
      5.55328406e-05 -2.97663446e-05 0. 1.24766826e-04 2.41646587e-04
      1.03632148e-04 0. 0. 1.11502944e-04 0. 0. 0. 0. 1.31099034e-04 0.
      0. -6.53277384e-05 -1.48140825e-05 -2.90901130e-06 1.76754183e-04
      -5.28624842e-05 -1.92837633e-05 4.98876852e-06 0. 7.22138502e-05
      2.41646587e-04 2.91705597e-04 0. 1.86948673e-04 2.39152450e-05
      1.76703106e-04 3.97912481e-05 5.79297921e-05 0. 0. -1.04123055e-05
      5.79297921e-05 0. 0. -4.84939937e-06 3.49220390e-05 4.34606918e-05
      3.19204519e-05 0. -4.23666734e-06 -2.47931603e-05 -3.03630277e-05
      3.09820753e-05 -6.81888996e-05 -1.39228196e-05 2.31762577e-04
      3.85525636e-05 9.11909156e-05 1.37388924e-04 -2.56391786e-06
      7.44437129e-05 0. 1.37429888e-04 4.20669749e-05 5.79297921e-05 0.
      0. 0. 0. 0. 1.52804147e-04 2.27362529e-04 7.11769389e-05
      -3.74014198e-05 8.64922549e-05 1.32849498e-04 -1.02298566e-06
      -1.52727916e-05 -2.52678292e-05 -4.89846680e-05 -3.89428060e-05
      -2.00159047e-05 -2.76996598e-05 -4.01508441e-05 -5.05749122e-05
      -2.10393882e-05 8.66145128e-05 1.79143593e-04 1.68373881e-04
      1.63521632e-04 1.27301595e-04 5.12275328e-05 1.87571291e-04
      1.22208061e-04 0. 1.60668904e-04 1.57415925e-05 1.08004817e-04
      -7.64982133e-07 -1.58565636e-05 -2.67486553e-06 -3.74195179e-06 0.
      1.30930348e-05 -2.74951844e-07 -7.02514535e-06 -3.94355593e-05
      -1.29348091e-05 -4.03829035e-05 -1.11687314e-05 -4.19766693e-05
      -2.99745279e-05 -6.43086514e-06 -1.95562188e-05 -1.29632663e-05
      -4.09541681e-05 1.58672665e-05 -7.33192883e-06 -1.15437069e-06
      2.85681162e-05 1.40459902e-04 1.57415925e-05 0. 1.57415925e-05
      1.57415925e-05 -3.53517680e-05 -1.17755608e-05 5.78447944e-05
      -1.51828590e-06 -8.41488054e-06 4.13766975e-06 -3.36299454e-05
      -3.29854788e-06 -1.81206326e-06 -1.11574755e-05 0. -3.32936397e-05
      -5.37665655e-05 -4.41167431e-05 -1.10055917e-05 -3.76140160e-05
      -2.91378410e-06 0. -1.16200908e-05 6.12829899e-05 -3.77794038e-07
      -1.57077989e-06 8.71571683e-05 0. 0. 0. 0. -4.73393948e-06
      -1.23767904e-05 0. -2.15905311e-06 -1.71501415e-05 -1.87365986e-05
      -1.35888868e-05 -5.80822461e-06 -2.87490857e-05 9.45903521e-05
      -4.96923094e-05 8.38207488e-05 -1.97867103e-05 -1.14090481e-05
      -2.31816903e-05 -2.61606056e-05 -4.49031177e-05 5.54165417e-05 0.
      -1.20416244e-05 -1.18407170e-05 -1.19721735e-05 0. -4.84660814e-06
      -4.88160140e-06 0. 0. -1.76378344e-05 -4.11915380e-06
      -9.09660685e-06 0. 0. -9.14065458e-06 8.72735291e-06
      3.19204519e-05 -1.34604779e-05 -5.13397463e-05 -2.52052087e-05
      -2.57791471e-05 -1.55578036e-05 -3.56744204e-05 -3.60298400e-05
      -3.04075220e-05 7.41708072e-06 -1.30693943e-05 -1.22600222e-05
      -1.04335977e-05 -9.71257236e-07 0. -1.98649614e-05 0.
      -9.61557248e-07 0. 0. 0. 0. -3.81986041e-07 -2.28841873e-05 0.
      4.15051181e-05 1.11502944e-04 0. -1.38740752e-05 -2.57012089e-05
      7.62250129e-05 -7.92138690e-06 -3.08669064e-06 -2.52517602e-05
      1.05008847e-04 -5.34032333e-05 2.56351741e-05 6.93512557e-05
      -1.02037466e-05 2.06109708e-05 0. 0. 0. 0. 0. -8.52608446e-06 0.
      -2.62023950e-05 -7.27214820e-06 4.89738450e-05 1.57415925e-05
      -5.19077093e-06 0. -2.65233994e-05 -1.11255658e-05 2.01357579e-05
      0. 0. -3.02795797e-05 -3.09650659e-07 -1.58277144e-05
      -4.13261114e-05 -2.61832229e-05 -3.53047762e-05 -3.72083487e-05
      3.68586188e-05 -6.36998084e-06 6.25441971e-05 -7.89822479e-06
      8.77292405e-05 -8.93792185e-06 -1.29486477e-06 -8.35272840e-06
      -2.25607187e-06 -6.08528399e-06 0. -4.31669889e-07 -3.06432935e-06
      0. 9.07803860e-06 4.00003119e-05 1.97525442e-05 -2.80249569e-05
      -2.78399784e-06 -1.69314098e-05 -1.62990455e-05 -2.92945679e-05
      -2.98426599e-08 -2.05492706e-05 -3.13636374e-05 -4.64053228e-05
      -3.62675055e-05 -3.80175552e-05 -5.43136921e-05 3.75876334e-05
      -1.65388046e-05 4.69350307e-05 3.04100158e-05 -7.12272276e-06
      4.50631196e-05 -1.16889332e-05 -2.43634277e-05 -1.78152677e-05
      4.98483751e-05 0. -2.99038657e-05 -1.52924767e-05 -2.16918233e-05
      -4.46804916e-06 -1.37302832e-05 0. -3.38805730e-05 -2.11944407e-05
      -1.20409948e-06 -3.36356561e-06 -4.15444994e-08 -1.53229103e-05
      -3.74360570e-05 -2.71662757e-05 -1.25155675e-05 -2.75211278e-05
      -2.47749049e-05 8.42971931e-05 -2.57000065e-05 3.13855817e-05
      -1.30144263e-05 -1.61788830e-05 0. -1.48171443e-06 0.
      -5.62240848e-06 -4.34573849e-05 -2.81414541e-05 -6.63316023e-05
      -8.01377701e-06 -1.70972053e-05 -3.89031175e-06 -1.67060607e-05
      -5.16020009e-05 -3.03274851e-06 -3.73019866e-05 -2.31927625e-05
      -9.65534400e-06 -4.14313909e-05 -5.65099544e-05 -3.29416871e-05
      -1.54280788e-05 -2.73786336e-05 -1.80421866e-05 -2.75507573e-05
      -3.27033122e-05 4.27850973e-05 -7.72887233e-06 6.85717023e-05
      -1.68194601e-05 -2.01455532e-05 5.42441667e-05 1.57415925e-05
      -3.88459421e-06 -7.14623638e-06 0. -5.96073323e-06 -4.16350258e-06
      -2.73736496e-05 -9.86394753e-06 -1.49014277e-05 -1.70628027e-05
      -9.64166475e-07 -5.28496857e-05 -9.71981990e-06 -1.24718827e-05
      -1.27934145e-05 -1.76730573e-05 -9.62330978e-06 -2.77069430e-05
      -1.75168543e-06 -1.53064393e-05 -1.82627336e-05 5.36061452e-05
      -2.55351206e-05 -1.74416546e-05 8.73583995e-05 -7.21563083e-06
      -5.13878103e-06 -1.29963757e-06 -5.09289805e-07 -1.81126634e-05
      -9.00300347e-06 0. -5.10677955e-06 -2.32910497e-05 -4.43511999e-05
      -2.07792818e-05 -1.84613855e-05 -1.80018742e-05 -5.84403415e-06
      -2.78182415e-05 -9.76252977e-06 -1.24409610e-06 -1.70046933e-05
      -1.82163494e-05 -1.08833719e-05 -5.60084527e-06 -3.64386278e-06
      -9.36512697e-06 -1.56938108e-06 -1.25798497e-05 -2.60437591e-05
      8.70954045e-06 -9.83753944e-06 6.50672955e-05 0. -6.18413014e-06
      -1.25213762e-06 4.89256490e-05 -1.09017246e-05 0. -2.25765075e-06
      0. -5.13878103e-06 -5.07411823e-06 -1.01565411e-05 0.
      -4.26701718e-06 -9.33649244e-06 0. 0. -4.26701718e-06 0.
      -2.38540015e-05 -1.47954142e-06 -1.89770562e-05 -8.94910590e-06
      -2.07670637e-05 0. -1.61414653e-06 -2.75624461e-05 7.87079625e-06
      0. 0. -1.40799393e-05 0. -5.02460580e-06 -7.43736109e-06
      -2.35706957e-05 -1.43506850e-05 -3.81991731e-06 -2.04912321e-05
      -8.87451642e-06 0. 0. -1.45251452e-05 -1.20669947e-05
      -1.22818310e-05 -1.76556368e-05 -2.21434748e-05 -5.92348670e-06
      -2.17154429e-05 -8.05386844e-06 -7.89713522e-06 -1.59708907e-05
      -8.12388316e-06 -1.98843172e-05 -4.64951790e-06 -3.10007854e-05
      -2.51629226e-05 -6.29315173e-06 6.10924471e-05 -3.01147026e-07 0.
      -7.44836325e-06 -5.11306189e-06 -1.24718827e-05 -2.89640388e-06
      -1.59825977e-05 -1.30439867e-05 0. -2.69377915e-06 3.69064765e-05
      -1.87211954e-05 -2.12376608e-06 0. -2.89243526e-05 -2.12290579e-05
      0. 0. -6.01848387e-06 8.00463931e-06 -2.00643353e-06 0. 0.
      -1.03930279e-05 -2.68883582e-06 5.50048867e-07 0. 0. 0. 0. 0.
      1.78032336e-04 0. 0. 0. -2.27641376e-05 0. -2.38879056e-05 0.
      -2.14901302e-05 -1.85006775e-05 -1.12894486e-06 -1.03376306e-05 0.
      -3.77766446e-06 0. -3.22249216e-05 -1.75136131e-06 0.
      -2.62318463e-06 0. 9.70432884e-05 0. -2.28570843e-05 0. 0. 0.
      -1.10200097e-06 0. 1.99604227e-04 0. 0. 0. -2.27855289e-05 0.
      -4.11915380e-06 0. -1.01465048e-07 -2.28841873e-05 -2.51119018e-05
      0. 0. -4.62690195e-06 -1.40433474e-06 -2.67938358e-05
      -1.24786911e-05 0. -3.73946727e-06 8.07153410e-05 -7.28772557e-06
      -8.10389975e-06 -4.26701718e-06 0. 0. 0. 4.34351750e-05 0. 0. 0.
      0. 0. 0. 0. 0. 0. -2.80481509e-05 -6.08621849e-06 -1.78388400e-05
      0. -2.71177632e-05 -6.41628594e-06 -6.74916510e-06 -9.64498554e-07
      -2.23481197e-06 -1.45314589e-05 -2.56646871e-07 0. 0. 0.
      -2.71177632e-05 0. 3.19204519e-05 4.28521744e-05 0. 1.61092437e-04
      1.39190175e-04 7.87079625e-06 0. 0. 0. -3.43002830e-05
      -1.37578054e-05 -1.77559014e-05 -1.37103998e-05 0. -1.96702404e-05
      0. -2.05957690e-06 -8.35272840e-06 0. 9.20911261e-05
      -1.02624460e-06 -1.97113404e-05 -1.96651654e-05 -5.14484491e-05
      -3.07167611e-05 -2.16930530e-05 0. 2.76239327e-04 0.
      1.13478913e-04 1.21746787e-04 -6.18143929e-07 1.11502944e-04
      1.11502944e-04 0. 0. -5.96853226e-07 0. -1.09017246e-05 0. 0.
      2.40496556e-05 0. 0. 0. -2.91773395e-05 0. -1.22774163e-05 0.
      -1.50248816e-05 0. -2.79844448e-06 -2.91773395e-05 -2.57352167e-05
      2.02357493e-04 0. 0. 0. 1.88073434e-04 0. 1.62064098e-04
      5.68446421e-06 4.89738450e-05 0. -3.53139731e-05 -1.25341637e-06
      -2.18110727e-05 -1.52443872e-05 0. 0. 0. 0. 0. 0. 0. 0.
      -2.19787817e-05 -3.37369420e-05 -7.70116276e-06 -1.49670359e-05
      2.59930785e-05 5.73840916e-05 5.79297921e-05 0. 2.85681162e-05
      5.79297921e-05 5.79297921e-05 -2.17399775e-05 0. 1.08004817e-04
      2.36123888e-05 0. -1.89230395e-05 -7.19934033e-05 -1.88814211e-05
      0. 0. 0. 0. 0. 0. 0. 0. -1.16332485e-05 0. -1.15038602e-05
      -2.07533117e-06 8.42470617e-05 3.12040720e-05 6.60931037e-05
      -3.39233566e-06 0. 1.58711759e-04 1.82518525e-05 0. 1.15859584e-04
      1.92041232e-04 1.03632148e-04 1.26807272e-05 -1.68178281e-06
      9.90170010e-05 -4.46657505e-05 0. 0. -1.34763161e-06 0. 0. 0. 0.
      -6.12371969e-06 0. -2.35649236e-06 0. -5.21312086e-06 0.
      2.85681162e-05 1.89540195e-04 1.00702295e-04 0. 1.73789376e-04
      1.00781966e-04 1.73789376e-04 1.73789376e-04 7.84164949e-05</_></support_vectors>
  <decision_functions>
    <_>
      <sv_count>1</sv_count>
      <rho>9.2454460584501008e-01</rho>
      <alpha>
        1.</alpha>
      <index>
        0</index></_></decision_functions></my_svm>
</opencv_storage>
